Language model created by QuickLM on Sun Sep 17 03:23:01 EDT 2023
Copyright (c) 1996-2010 Carnegie Mellon University and Alexander I. Rudnicky

The model is in standard ARPA format, designed by Doug Paul while he was at MITRE.

The code that was used to produce this language model is available in Open Source.
Please visit http://www.speech.cs.cmu.edu/tools/ for more information

The (fixed) discount mass is 0.5. The backoffs are computed using the ratio method.
This model based on a corpus of 12 sentences and 14 words

\data\
ngram 1=14
ngram 2=24
ngram 3=20

\1-grams:
-0.8751 </s> -0.3010
-0.8751 <s> -0.2333
-1.6532 CHROME -0.2389
-1.4771 CLOSE -0.2711
-1.9542 DOWN -0.2389
-1.6532 GAME -0.2389
-1.9542 LEFT -0.2389
-1.6532 MUSIC -0.2389
-1.4771 OPEN -0.2711
-1.9542 RIGHT -0.2389
-1.9542 STOP -0.2913
-1.6532 THE -0.2913
-1.9542 SEARCH -0.2389
-1.6532 YOUTUBE -0.2389
-1.9542 EXECUTE -0.2389 // Added

\2-grams:
-0.9031 <s> CLOSE 0.0000
-1.3802 <s> DOWN 0.0000
-1.3802 <s> LEFT 0.0000
-1.3802 <s> MUSIC 0.0000
-0.9031 <s> OPEN 0.0000
-1.3802 <s> RIGHT 0.0000
-1.3802 <s> STOP 0.0000
-1.3802 <s> UP 0.0000
-0.3010 CHROME </s> -0.3010
-0.7782 CLOSE CHROME 0.0000
-0.7782 CLOSE THE 0.0000
-0.7782 CLOSE YOUTUBE 0.0000
-0.3010 DOWN </s> -0.3010
-0.3010 GAME </s> -0.3010
-0.3010 LEFT </s> -0.3010
-0.3010 MUSIC </s> -0.3010
-0.7782 OPEN CHROME 0.0000
-0.7782 OPEN THE 0.0000
-0.7782 OPEN YOUTUBE 0.0000
-0.3010 RIGHT </s> -0.3010
-0.3010 STOP MUSIC 0.0000
-0.3010 THE GAME 0.0000
-0.3010 SEARCH </s> -0.3010
-0.3010 YOUTUBE </s> -0.3010
-0.9031 <s> EXECUTE 0.0000 // Added

\3-grams:
-0.7782 <s> CLOSE CHROME
-0.7782 <s> CLOSE THE
-0.7782 <s> CLOSE YOUTUBE
-0.3010 <s> DOWN </s>
-0.3010 <s> SEARCH </s>
-0.3010 <s> MUSIC </s>
-0.7782 <s> OPEN CHROME
-0.7782 <s> OPEN THE
-0.7782 <s> OPEN YOUTUBE
-0.3010 <s> RIGHT </s>
-0.3010 <s> STOP MUSIC
-0.3010 <s> UP </s>
-0.3010 CLOSE CHROME </s>
-0.3010 CLOSE THE GAME
-0.3010 CLOSE YOUTUBE </s>
-0.3010 OPEN CHROME </s>
-0.3010 OPEN THE GAME
-0.3010 OPEN YOUTUBE </s>
-0.3010 STOP MUSIC </s>
-0.3010 THE GAME </s>



\end\
